<?xml version="1.0"?>
<opencv_storage>
<cascade>
  <stageType>BOOST</stageType>
  <featureType>HAAR</featureType>
  <height>33</height>
  <width>33</width>
  <stageParams>
    <boostType>GAB</boostType>
    <minHitRate>9.9500000476837158e-01</minHitRate>
    <maxFalseAlarm>5.0000000000000000e-01</maxFalseAlarm>
    <weightTrimRate>9.4999998807907104e-01</weightTrimRate>
    <maxDepth>1</maxDepth>
    <maxWeakCount>100</maxWeakCount></stageParams>
  <featureParams>
    <maxCatCount>0</maxCatCount>
    <featSize>1</featSize>
    <mode>BASIC</mode></featureParams>
  <stageNum>19</stageNum>
  <stages>
    <!-- stage 0 -->
    <_>
      <maxWeakCount>6</maxWeakCount>
      <stageThreshold>-2.0389866828918457e+00</stageThreshold>
      <weakClassifiers>
        <_>
          <internalNodes>
            0 -1 21 -1.3076256215572357e-01</internalNodes>
          <leafValues>
            5.5555558204650879e-01 -9.3184030055999756e-01</leafValues></_>
        <_>
          <internalNodes>
            0 -1 63 -3.0144147574901581e-02</internalNodes>
          <leafValues>
            6.1368924379348755e-01 -7.2171294689178467e-01</leafValues></_>
        <_>
          <internalNodes>
            0 -1 87 1.4756729360669851e-03</internalNodes>
          <leafValues>
            -4.6689108014106750e-01 7.3660469055175781e-01</leafValues></_>
        <_>
          <internalNodes>
            0 -1 76 6.6694118082523346e-02</internalNodes>
          <leafValues>
            -5.3924959897994995e-01 6.1761838197708130e-01</leafValues></_>
        <_>
          <internalNodes>
            0 -1 105 5.2689751610159874e-03</internalNodes>
          <leafValues>
            3.2827398180961609e-01 -9.2632627487182617e-01</leafValues></_>
        <_>
          <internalNodes>
            0 -1 102 -7.8091625255183317e-06</internalNodes>
          <leafValues>
            -7.4097603559494019e-01 2.9243317246437073e-01</leafValues></_></weakClassifiers></_>
    <!-- stage 1 -->
    <_>
      <maxWeakCount>5</maxWeakCount>
      <stageThreshold>-2.1137104034423828e+00</stageThreshold>
      <weakClassifiers>
        <_>
          <internalNodes>
            0 -1 72 -3.7372939288616180e-02</internalNodes>
          <leafValues>
            6.6666668653488159e-01 -9.2642790079116821e-01</leafValues></_>
        <_>
          <internalNodes>
            0 -1 81 -1.4896591892465949e-03</internalNodes>
          <leafValues>
            7.3160785436630249e-01 -7.3595213890075684e-01</leafValues></_>
        <_>
          <internalNodes>
            0 -1 95 1.6302554868161678e-03</internalNodes>
          <leafValues>
            -4.9621820449829102e-01 7.1982747316360474e-01</leafValues></_>
        <_>
          <internalNodes>
            0 -1 70 1.4129634946584702e-03</internalNodes>
          <leafValues>
            -4.3451142311096191e-01 7.2198235988616943e-01</leafValues></_>
        <_>
          <internalNodes>
            0 -1 62 4.1951764374971390e-02</internalNodes>
          <leafValues>
            -5.8386492729187012e-01 4.7939920425415039e-01</leafValues></_></weakClassifiers></_>
    <!-- stage 2 -->
    <_>
      <maxWeakCount>5</maxWeakCount>
      <stageThreshold>-1.9719221591949463e+00</stageThreshold>
      <weakClassifiers>
        <_>
          <internalNodes>
            0 -1 64 -1.9221624732017517e-01</internalNodes>
          <leafValues>
            8.4615385532379150e-01 -9.2478305101394653e-01</leafValues></_>
        <_>
          <internalNodes>
            0 -1 79 -1.2982446700334549e-02</internalNodes>
          <leafValues>
            4.6494710445404053e-01 -7.0580035448074341e-01</leafValues></_>
        <_>
          <internalNodes>
            0 -1 60 -8.6306227603927255e-04</internalNodes>
          <leafValues>
            5.7633173465728760e-01 -4.5441216230392456e-01</leafValues></_>
        <_>
          <internalNodes>
            0 -1 66 1.6220040619373322e-02</internalNodes>
          <leafValues>
            -3.0409717559814453e-01 7.2751837968826294e-01</leafValues></_>
        <_>
          <internalNodes>
            0 -1 29 -6.2983771786093712e-03</internalNodes>
          <leafValues>
            4.1717058420181274e-01 -6.0978633165359497e-01</leafValues></_></weakClassifiers></_>
    <!-- stage 3 -->
    <_>
      <maxWeakCount>5</maxWeakCount>
      <stageThreshold>-1.6243274211883545e+00</stageThreshold>
      <weakClassifiers>
        <_>
          <internalNodes>
            0 -1 71 -4.2803104966878891e-02</internalNodes>
          <leafValues>
            1. -9.1204589605331421e-01</leafValues></_>
        <_>
          <internalNodes>
            0 -1 68 -9.9792368710041046e-03</internalNodes>
          <leafValues>
            6.3144141435623169e-01 -6.7191511392593384e-01</leafValues></_>
        <_>
          <internalNodes>
            0 -1 45 -1.4955692458897829e-03</internalNodes>
          <leafValues>
            5.1357817649841309e-01 -4.3122497200965881e-01</leafValues></_>
        <_>
          <internalNodes>
            0 -1 38 -1.9274204532848671e-05</internalNodes>
          <leafValues>
            -8.1305110454559326e-01 2.8865969181060791e-01</leafValues></_>
        <_>
          <internalNodes>
            0 -1 33 2.3035120102576911e-04</internalNodes>
          <leafValues>
            2.5910657644271851e-01 -7.5939214229583740e-01</leafValues></_></weakClassifiers></_>
    <!-- stage 4 -->
    <_>
      <maxWeakCount>5</maxWeakCount>
      <stageThreshold>-1.6339612007141113e+00</stageThreshold>
      <weakClassifiers>
        <_>
          <internalNodes>
            0 -1 73 -3.9577893912792206e-02</internalNodes>
          <leafValues>
            6.1538463830947876e-01 -9.1899710893630981e-01</leafValues></_>
        <_>
          <internalNodes>
            0 -1 40 -2.6091344654560089e-02</internalNodes>
          <leafValues>
            1.1305114626884460e-01 -7.3705929517745972e-01</leafValues></_>
        <_>
          <internalNodes>
            0 -1 0 -3.4685356076806784e-03</internalNodes>
          <leafValues>
            -8.7178564071655273e-01 1.5789951384067535e-01</leafValues></_>
        <_>
          <internalNodes>
            0 -1 87 1.5021213330328465e-03</internalNodes>
          <leafValues>
            -3.8791766762733459e-01 6.0884559154510498e-01</leafValues></_>
        <_>
          <internalNodes>
            0 -1 103 -4.1270244400948286e-04</internalNodes>
          <leafValues>
            -5.9799712896347046e-01 3.8513502478599548e-01</leafValues></_></weakClassifiers></_>
    <!-- stage 5 -->
    <_>
      <maxWeakCount>5</maxWeakCount>
      <stageThreshold>-1.5861874818801880e+00</stageThreshold>
      <weakClassifiers>
        <_>
          <internalNodes>
            0 -1 65 -1.3065716624259949e-01</internalNodes>
          <leafValues>
            1. -9.0657770633697510e-01</leafValues></_>
        <_>
          <internalNodes>
            0 -1 12 -5.4655574262142181e-02</internalNodes>
          <leafValues>
            7.1626439690589905e-02 -7.4685984849929810e-01</leafValues></_>
        <_>
          <internalNodes>
            0 -1 98 2.5326587259769440e-02</internalNodes>
          <leafValues>
            -4.9838191270828247e-01 4.3663728237152100e-01</leafValues></_>
        <_>
          <internalNodes>
            0 -1 112 -3.8939522346481681e-04</internalNodes>
          <leafValues>
            -8.5840117931365967e-01 2.2048614919185638e-01</leafValues></_>
        <_>
          <internalNodes>
            0 -1 67 5.5982603225857019e-04</internalNodes>
          <leafValues>
            -3.2947239279747009e-01 5.8939647674560547e-01</leafValues></_></weakClassifiers></_>
    <!-- stage 6 -->
    <_>
      <maxWeakCount>4</maxWeakCount>
      <stageThreshold>-1.3444930315017700e+00</stageThreshold>
      <weakClassifiers>
        <_>
          <internalNodes>
            0 -1 56 -3.3890992403030396e-02</internalNodes>
          <leafValues>
            1. -9.0476191043853760e-01</leafValues></_>
        <_>
          <internalNodes>
            0 -1 44 -2.0169158279895782e-01</internalNodes>
          <leafValues>
            3.4689307212829590e-01 -7.2590959072113037e-01</leafValues></_>
        <_>
          <internalNodes>
            0 -1 109 -2.8585956897586584e-05</internalNodes>
          <leafValues>
            -8.8441914319992065e-01 1.2162636220455170e-01</leafValues></_>
        <_>
          <internalNodes>
            0 -1 26 1.5314535703510046e-03</internalNodes>
          <leafValues>
            1.6455210745334625e-01 -8.4730643033981323e-01</leafValues></_></weakClassifiers></_>
    <!-- stage 7 -->
    <_>
      <maxWeakCount>6</maxWeakCount>
      <stageThreshold>-1.7424941062927246e+00</stageThreshold>
      <weakClassifiers>
        <_>
          <internalNodes>
            0 -1 74 -8.8542461395263672e-02</internalNodes>
          <leafValues>
            7.3333334922790527e-01 -9.0458017587661743e-01</leafValues></_>
        <_>
          <internalNodes>
            0 -1 51 3.1277008354663849e-02</internalNodes>
          <leafValues>
            -6.1285060644149780e-01 5.8468967676162720e-01</leafValues></_>
        <_>
          <internalNodes>
            0 -1 97 9.0561032993718982e-04</internalNodes>
          <leafValues>
            1.5758232772350311e-01 -7.8465390205383301e-01</leafValues></_>
        <_>
          <internalNodes>
            0 -1 27 1.8593193963170052e-02</internalNodes>
          <leafValues>
            2.5767919421195984e-01 -6.4972621202468872e-01</leafValues></_>
        <_>
          <internalNodes>
            0 -1 37 7.9465098679065704e-04</internalNodes>
          <leafValues>
            2.6035067439079285e-01 -7.3061317205429077e-01</leafValues></_>
        <_>
          <internalNodes>
            0 -1 6 8.1191986100748181e-04</internalNodes>
          <leafValues>
            1.8107543885707855e-01 -9.0067553520202637e-01</leafValues></_></weakClassifiers></_>
    <!-- stage 8 -->
    <_>
      <maxWeakCount>6</maxWeakCount>
      <stageThreshold>-1.6811404228210449e+00</stageThreshold>
      <weakClassifiers>
        <_>
          <internalNodes>
            0 -1 24 -8.9535295963287354e-02</internalNodes>
          <leafValues>
            7.3333334922790527e-01 -9.0458017587661743e-01</leafValues></_>
        <_>
          <internalNodes>
            0 -1 85 -4.6214805915951729e-03</internalNodes>
          <leafValues>
            1.2469022721052170e-01 -6.6881811618804932e-01</leafValues></_>
        <_>
          <internalNodes>
            0 -1 52 -6.9897204637527466e-02</internalNodes>
          <leafValues>
            3.7583935260772705e-01 -4.3564492464065552e-01</leafValues></_>
        <_>
          <internalNodes>
            0 -1 20 -8.4858147602062672e-06</internalNodes>
          <leafValues>
            -6.5246945619583130e-01 2.5745797157287598e-01</leafValues></_>
        <_>
          <internalNodes>
            0 -1 78 1.6756964032538235e-04</internalNodes>
          <leafValues>
            -3.4760999679565430e-01 4.6502658724784851e-01</leafValues></_>
        <_>
          <internalNodes>
            0 -1 80 1.3380208052694798e-02</internalNodes>
          <leafValues>
            -2.7816268801689148e-01 6.2734395265579224e-01</leafValues></_></weakClassifiers></_>
    <!-- stage 9 -->
    <_>
      <maxWeakCount>6</maxWeakCount>
      <stageThreshold>-1.6789897680282593e+00</stageThreshold>
      <weakClassifiers>
        <_>
          <internalNodes>
            0 -1 53 -1.3507035374641418e-01</internalNodes>
          <leafValues>
            6.9230771064758301e-01 -9.0095239877700806e-01</leafValues></_>
        <_>
          <internalNodes>
            0 -1 1 -3.0678987503051758e-01</internalNodes>
          <leafValues>
            5.3044214844703674e-02 -6.7191016674041748e-01</leafValues></_>
        <_>
          <internalNodes>
            0 -1 15 5.4152065422385931e-04</internalNodes>
          <leafValues>
            8.4005832672119141e-02 -9.0808492898941040e-01</leafValues></_>
        <_>
          <internalNodes>
            0 -1 2 -6.3808625563979149e-03</internalNodes>
          <leafValues>
            -8.3268046379089355e-01 1.3734818994998932e-01</leafValues></_>
        <_>
          <internalNodes>
            0 -1 86 2.4904846213757992e-03</internalNodes>
          <leafValues>
            -3.2658037543296814e-01 4.5326414704322815e-01</leafValues></_>
        <_>
          <internalNodes>
            0 -1 92 -2.2528175031766295e-04</internalNodes>
          <leafValues>
            -7.3647069931030273e-01 2.6623550057411194e-01</leafValues></_></weakClassifiers></_>
    <!-- stage 10 -->
    <_>
      <maxWeakCount>7</maxWeakCount>
      <stageThreshold>-1.9182071685791016e+00</stageThreshold>
      <weakClassifiers>
        <_>
          <internalNodes>
            0 -1 47 -9.7033739089965820e-02</internalNodes>
          <leafValues>
            1. -8.9573460817337036e-01</leafValues></_>
        <_>
          <internalNodes>
            0 -1 59 1.1235370766371489e-03</internalNodes>
          <leafValues>
            -6.8126797676086426e-01 -7.4694454669952393e-02</leafValues></_>
        <_>
          <internalNodes>
            0 -1 75 1.1509750038385391e-02</internalNodes>
          <leafValues>
            -5.8336031436920166e-01 2.1689169108867645e-01</leafValues></_>
        <_>
          <internalNodes>
            0 -1 58 -7.3700351640582085e-03</internalNodes>
          <leafValues>
            6.6746699810028076e-01 -2.6911875605583191e-01</leafValues></_>
        <_>
          <internalNodes>
            0 -1 9 -7.4947158282157034e-05</internalNodes>
          <leafValues>
            -7.1938550472259521e-01 2.7511397004127502e-01</leafValues></_>
        <_>
          <internalNodes>
            0 -1 11 -6.1220052884891629e-06</internalNodes>
          <leafValues>
            -7.8149515390396118e-01 1.7887420952320099e-01</leafValues></_>
        <_>
          <internalNodes>
            0 -1 69 -1.2165617954451591e-04</internalNodes>
          <leafValues>
            4.3548455834388733e-01 -3.3125618100166321e-01</leafValues></_></weakClassifiers></_>
    <!-- stage 11 -->
    <_>
      <maxWeakCount>6</maxWeakCount>
      <stageThreshold>-1.6363649368286133e+00</stageThreshold>
      <weakClassifiers>
        <_>
          <internalNodes>
            0 -1 48 -1.4463180303573608e-01</internalNodes>
          <leafValues>
            7.7777779102325439e-01 -8.9563566446304321e-01</leafValues></_>
        <_>
          <internalNodes>
            0 -1 99 -1.9965609535574913e-03</internalNodes>
          <leafValues>
            1.7623411118984222e-01 -6.1570799350738525e-01</leafValues></_>
        <_>
          <internalNodes>
            0 -1 83 4.7965662815840915e-05</internalNodes>
          <leafValues>
            1.1862945556640625e-01 -6.9180512428283691e-01</leafValues></_>
        <_>
          <internalNodes>
            0 -1 22 -6.9706466092611663e-06</internalNodes>
          <leafValues>
            3.8623106479644775e-01 -3.2428404688835144e-01</leafValues></_>
        <_>
          <internalNodes>
            0 -1 107 -1.9779425929300487e-04</internalNodes>
          <leafValues>
            -7.5137245655059814e-01 2.2230525314807892e-01</leafValues></_>
        <_>
          <internalNodes>
            0 -1 8 5.0921966321766376e-03</internalNodes>
          <leafValues>
            1.2149067968130112e-01 -8.4520614147186279e-01</leafValues></_></weakClassifiers></_>
    <!-- stage 12 -->
    <_>
      <maxWeakCount>6</maxWeakCount>
      <stageThreshold>-1.7816681861877441e+00</stageThreshold>
      <weakClassifiers>
        <_>
          <internalNodes>
            0 -1 49 -1.5696147084236145e-01</internalNodes>
          <leafValues>
            6.3636362552642822e-01 -8.9733839035034180e-01</leafValues></_>
        <_>
          <internalNodes>
            0 -1 93 4.9823947483673692e-04</internalNodes>
          <leafValues>
            -6.4584171772003174e-01 2.8854774311184883e-02</leafValues></_>
        <_>
          <internalNodes>
            0 -1 28 9.5946565270423889e-02</internalNodes>
          <leafValues>
            -2.7197253704071045e-01 6.0383182764053345e-01</leafValues></_>
        <_>
          <internalNodes>
            0 -1 23 3.4432235406711698e-04</internalNodes>
          <leafValues>
            -3.9412558078765869e-01 3.6659991741180420e-01</leafValues></_>
        <_>
          <internalNodes>
            0 -1 113 -1.4875025488436222e-02</internalNodes>
          <leafValues>
            -9.6070218086242676e-01 1.3148345053195953e-01</leafValues></_>
        <_>
          <internalNodes>
            0 -1 18 -1.3326120097190142e-04</internalNodes>
          <leafValues>
            2.9612663388252258e-01 -4.6222615242004395e-01</leafValues></_></weakClassifiers></_>
    <!-- stage 13 -->
    <_>
      <maxWeakCount>9</maxWeakCount>
      <stageThreshold>-1.8846886157989502e+00</stageThreshold>
      <weakClassifiers>
        <_>
          <internalNodes>
            0 -1 54 -1.6745890676975250e-01</internalNodes>
          <leafValues>
            7.7777779102325439e-01 -8.9563566446304321e-01</leafValues></_>
        <_>
          <internalNodes>
            0 -1 100 1.7949638888239861e-02</internalNodes>
          <leafValues>
            -5.7862055301666260e-01 4.8552778363227844e-01</leafValues></_>
        <_>
          <internalNodes>
            0 -1 94 2.8263809508644044e-04</internalNodes>
          <leafValues>
            -3.1492006778717041e-01 4.1516125202178955e-01</leafValues></_>
        <_>
          <internalNodes>
            0 -1 111 5.7576876133680344e-04</internalNodes>
          <leafValues>
            -3.6650595068931580e-01 4.0836554765701294e-01</leafValues></_>
        <_>
          <internalNodes>
            0 -1 3 5.6291685905307531e-04</internalNodes>
          <leafValues>
            2.2582490742206573e-01 -6.0596168041229248e-01</leafValues></_>
        <_>
          <internalNodes>
            0 -1 14 -3.5728868097066879e-03</internalNodes>
          <leafValues>
            4.4085547327995300e-01 -2.9317152500152588e-01</leafValues></_>
        <_>
          <internalNodes>
            0 -1 42 -1.6982634365558624e-01</internalNodes>
          <leafValues>
            4.8076891899108887e-01 -2.6545614004135132e-01</leafValues></_>
        <_>
          <internalNodes>
            0 -1 91 3.1075772130861878e-04</internalNodes>
          <leafValues>
            -2.6080530881881714e-01 5.3463304042816162e-01</leafValues></_>
        <_>
          <internalNodes>
            0 -1 84 1.6398607986047864e-03</internalNodes>
          <leafValues>
            1.9143554568290710e-01 -7.2802978754043579e-01</leafValues></_></weakClassifiers></_>
    <!-- stage 14 -->
    <_>
      <maxWeakCount>7</maxWeakCount>
      <stageThreshold>-1.7196927070617676e+00</stageThreshold>
      <weakClassifiers>
        <_>
          <internalNodes>
            0 -1 55 -1.6289925575256348e-01</internalNodes>
          <leafValues>
            1. -8.9393937587738037e-01</leafValues></_>
        <_>
          <internalNodes>
            0 -1 90 -7.6704734237864614e-04</internalNodes>
          <leafValues>
            2.7194711565971375e-01 -6.1745095252990723e-01</leafValues></_>
        <_>
          <internalNodes>
            0 -1 61 -1.4296082779765129e-02</internalNodes>
          <leafValues>
            2.2574084997177124e-01 -5.4104417562484741e-01</leafValues></_>
        <_>
          <internalNodes>
            0 -1 41 1.0638312995433807e-01</internalNodes>
          <leafValues>
            -3.3104181289672852e-01 4.2829471826553345e-01</leafValues></_>
        <_>
          <internalNodes>
            0 -1 16 4.3959073722362518e-02</internalNodes>
          <leafValues>
            2.4322007596492767e-01 -6.5521550178527832e-01</leafValues></_>
        <_>
          <internalNodes>
            0 -1 25 -6.5665604779496789e-05</internalNodes>
          <leafValues>
            3.1405508518218994e-01 -4.0703010559082031e-01</leafValues></_>
        <_>
          <internalNodes>
            0 -1 7 -6.1847001314163208e-02</internalNodes>
          <leafValues>
            -6.3419777154922485e-01 2.4560751020908356e-01</leafValues></_></weakClassifiers></_>
    <!-- stage 15 -->
    <_>
      <maxWeakCount>8</maxWeakCount>
      <stageThreshold>-1.8869026899337769e+00</stageThreshold>
      <weakClassifiers>
        <_>
          <internalNodes>
            0 -1 50 -5.7786884717643261e-03</internalNodes>
          <leafValues>
            7.7777779102325439e-01 -8.9563566446304321e-01</leafValues></_>
        <_>
          <internalNodes>
            0 -1 96 -7.8284889459609985e-03</internalNodes>
          <leafValues>
            3.7383586168289185e-01 -5.8937352895736694e-01</leafValues></_>
        <_>
          <internalNodes>
            0 -1 46 -2.4271290749311447e-03</internalNodes>
          <leafValues>
            4.6501600742340088e-01 -3.1005915999412537e-01</leafValues></_>
        <_>
          <internalNodes>
            0 -1 32 -1.4460098464041948e-03</internalNodes>
          <leafValues>
            -6.5034413337707520e-01 2.2870875895023346e-01</leafValues></_>
        <_>
          <internalNodes>
            0 -1 82 6.6714343847706914e-04</internalNodes>
          <leafValues>
            4.0368944406509399e-01 -3.3820942044258118e-01</leafValues></_>
        <_>
          <internalNodes>
            0 -1 17 -6.0322985518723726e-04</internalNodes>
          <leafValues>
            -6.1063879728317261e-01 2.7180370688438416e-01</leafValues></_>
        <_>
          <internalNodes>
            0 -1 35 -1.3014487922191620e-04</internalNodes>
          <leafValues>
            4.3622729182243347e-01 -3.1232503056526184e-01</leafValues></_>
        <_>
          <internalNodes>
            0 -1 110 -3.1548831611871719e-04</internalNodes>
          <leafValues>
            -7.7635759115219116e-01 1.9873130321502686e-01</leafValues></_></weakClassifiers></_>
    <!-- stage 16 -->
    <_>
      <maxWeakCount>6</maxWeakCount>
      <stageThreshold>-1.8194073438644409e+00</stageThreshold>
      <weakClassifiers>
        <_>
          <internalNodes>
            0 -1 39 -5.9471398591995239e-02</internalNodes>
          <leafValues>
            7.7777779102325439e-01 -8.9563566446304321e-01</leafValues></_>
        <_>
          <internalNodes>
            0 -1 36 -3.3002097159624100e-02</internalNodes>
          <leafValues>
            3.4056639671325684e-01 -6.2396007776260376e-01</leafValues></_>
        <_>
          <internalNodes>
            0 -1 108 1.2569786049425602e-03</internalNodes>
          <leafValues>
            -3.2627561688423157e-01 5.0491064786911011e-01</leafValues></_>
        <_>
          <internalNodes>
            0 -1 104 -1.1761870700865984e-04</internalNodes>
          <leafValues>
            3.5666763782501221e-01 -3.9730939269065857e-01</leafValues></_>
        <_>
          <internalNodes>
            0 -1 10 -1.9196359062334523e-05</internalNodes>
          <leafValues>
            -7.9764336347579956e-01 1.9951614737510681e-01</leafValues></_>
        <_>
          <internalNodes>
            0 -1 19 2.5373317766934633e-03</internalNodes>
          <leafValues>
            -2.8412011265754700e-01 4.6743971109390259e-01</leafValues></_></weakClassifiers></_>
    <!-- stage 17 -->
    <_>
      <maxWeakCount>7</maxWeakCount>
      <stageThreshold>-1.7598837614059448e+00</stageThreshold>
      <weakClassifiers>
        <_>
          <internalNodes>
            0 -1 57 8.5622996091842651e-02</internalNodes>
          <leafValues>
            -8.9743590354919434e-01 8.0000001192092896e-01</leafValues></_>
        <_>
          <internalNodes>
            0 -1 101 -7.1542695164680481e-02</internalNodes>
          <leafValues>
            2.7518194913864136e-01 -6.1970877647399902e-01</leafValues></_>
        <_>
          <internalNodes>
            0 -1 4 -1.1103964425274171e-05</internalNodes>
          <leafValues>
            -5.5551201105117798e-01 1.9890001416206360e-01</leafValues></_>
        <_>
          <internalNodes>
            0 -1 31 5.8794752694666386e-03</internalNodes>
          <leafValues>
            2.0087026059627533e-01 -6.8084192276000977e-01</leafValues></_>
        <_>
          <internalNodes>
            0 -1 106 1.5358913515228778e-04</internalNodes>
          <leafValues>
            1.7506051063537598e-01 -7.8348886966705322e-01</leafValues></_>
        <_>
          <internalNodes>
            0 -1 30 3.4371874062344432e-04</internalNodes>
          <leafValues>
            -2.3797984421253204e-01 6.3248503208160400e-01</leafValues></_>
        <_>
          <internalNodes>
            0 -1 114 9.0312078100396320e-06</internalNodes>
          <leafValues>
            3.2086560130119324e-01 -4.9150553345680237e-01</leafValues></_></weakClassifiers></_>
    <!-- stage 18 -->
    <_>
      <maxWeakCount>7</maxWeakCount>
      <stageThreshold>-1.6591078042984009e+00</stageThreshold>
      <weakClassifiers>
        <_>
          <internalNodes>
            0 -1 77 7.4647720903158188e-03</internalNodes>
          <leafValues>
            -9.0294957160949707e-01 1.</leafValues></_>
        <_>
          <internalNodes>
            0 -1 88 2.6248823851346970e-02</internalNodes>
          <leafValues>
            -6.1513662338256836e-01 8.9613801240921021e-01</leafValues></_>
        <_>
          <internalNodes>
            0 -1 13 1.9074671436101198e-03</internalNodes>
          <leafValues>
            -4.2274492979049683e-01 3.7734672427177429e-01</leafValues></_>
        <_>
          <internalNodes>
            0 -1 34 3.4319506958127022e-03</internalNodes>
          <leafValues>
            -2.9541325569152832e-01 5.7978266477584839e-01</leafValues></_>
        <_>
          <internalNodes>
            0 -1 43 8.3682164549827576e-02</internalNodes>
          <leafValues>
            -1.8866485357284546e-01 7.8764426708221436e-01</leafValues></_>
        <_>
          <internalNodes>
            0 -1 5 6.1305327108129859e-05</internalNodes>
          <leafValues>
            2.6198461651802063e-01 -6.7431962490081787e-01</leafValues></_>
        <_>
          <internalNodes>
            0 -1 89 1.4393455348908901e-03</internalNodes>
          <leafValues>
            -2.9627484083175659e-01 5.4324471950531006e-01</leafValues></_></weakClassifiers></_></stages>
  <features>
    <_>
      <rects>
        <_>
          0 0 30 1 -1.</_>
        <_>
          10 0 10 1 3.</_></rects>
      <tilted>0</tilted></_>
    <_>
      <rects>
        <_>
          0 0 33 21 -1.</_>
        <_>
          11 0 11 21 3.</_></rects>
      <tilted>0</tilted></_>
    <_>
      <rects>
        <_>
          0 1 1 32 -1.</_>
        <_>
          0 17 1 16 2.</_></rects>
      <tilted>0</tilted></_>
    <_>
      <rects>
        <_>
          0 1 2 27 -1.</_>
        <_>
          1 1 1 27 2.</_></rects>
      <tilted>0</tilted></_>
    <_>
      <rects>
        <_>
          0 2 1 12 -1.</_>
        <_>
          0 8 1 6 2.</_></rects>
      <tilted>0</tilted></_>
    <_>
      <rects>
        <_>
          0 2 18 2 -1.</_>
        <_>
          0 2 9 1 2.</_>
        <_>
          9 3 9 1 2.</_></rects>
      <tilted>0</tilted></_>
    <_>
      <rects>
        <_>
          0 4 19 2 -1.</_>
        <_>
          0 5 19 1 2.</_></rects>
      <tilted>0</tilted></_>
    <_>
      <rects>
        <_>
          0 8 32 16 -1.</_>
        <_>
          16 8 16 16 2.</_></rects>
      <tilted>0</tilted></_>
    <_>
      <rects>
        <_>
          0 13 1 20 -1.</_>
        <_>
          0 23 1 10 2.</_></rects>
      <tilted>0</tilted></_>
    <_>
      <rects>
        <_>
          0 13 3 18 -1.</_>
        <_>
          1 13 1 18 3.</_></rects>
      <tilted>0</tilted></_>
    <_>
      <rects>
        <_>
          0 30 1 3 -1.</_>
        <_>
          0 31 1 1 3.</_></rects>
      <tilted>0</tilted></_>
    <_>
      <rects>
        <_>
          1 0 3 1 -1.</_>
        <_>
          2 0 1 1 3.</_></rects>
      <tilted>0</tilted></_>
    <_>
      <rects>
        <_>
          1 1 18 30 -1.</_>
        <_>
          7 1 6 30 3.</_></rects>
      <tilted>0</tilted></_>
    <_>
      <rects>
        <_>
          1 1 24 9 -1.</_>
        <_>
          9 1 8 9 3.</_></rects>
      <tilted>0</tilted></_>
    <_>
      <rects>
        <_>
          1 4 7 15 -1.</_>
        <_>
          1 9 7 5 3.</_></rects>
      <tilted>0</tilted></_>
    <_>
      <rects>
        <_>
          1 8 6 4 -1.</_>
        <_>
          1 8 3 2 2.</_>
        <_>
          4 10 3 2 2.</_></rects>
      <tilted>0</tilted></_>
    <_>
      <rects>
        <_>
          1 8 30 25 -1.</_>
        <_>
          16 8 15 25 2.</_></rects>
      <tilted>0</tilted></_>
    <_>
      <rects>
        <_>
          1 14 2 8 -1.</_>
        <_>
          2 14 1 8 2.</_></rects>
      <tilted>0</tilted></_>
    <_>
      <rects>
        <_>
          1 14 14 3 -1.</_>
        <_>
          1 15 14 1 3.</_></rects>
      <tilted>0</tilted></_>
    <_>
      <rects>
        <_>
          1 18 16 2 -1.</_>
        <_>
          1 18 8 1 2.</_>
        <_>
          9 19 8 1 2.</_></rects>
      <tilted>0</tilted></_>
    <_>
      <rects>
        <_>
          2 13 4 6 -1.</_>
        <_>
          2 13 2 3 2.</_>
        <_>
          4 16 2 3 2.</_></rects>
      <tilted>0</tilted></_>
    <_>
      <rects>
        <_>
          2 13 30 5 -1.</_>
        <_>
          12 13 10 5 3.</_></rects>
      <tilted>0</tilted></_>
    <_>
      <rects>
        <_>
          2 14 2 2 -1.</_>
        <_>
          2 14 1 1 2.</_>
        <_>
          3 15 1 1 2.</_></rects>
      <tilted>0</tilted></_>
    <_>
      <rects>
        <_>
          3 5 2 12 -1.</_>
        <_>
          3 9 2 4 3.</_></rects>
      <tilted>0</tilted></_>
    <_>
      <rects>
        <_>
          3 16 27 2 -1.</_>
        <_>
          12 16 9 2 3.</_></rects>
      <tilted>0</tilted></_>
    <_>
      <rects>
        <_>
          3 27 28 6 -1.</_>
        <_>
          3 27 14 3 2.</_>
        <_>
          17 30 14 3 2.</_></rects>
      <tilted>0</tilted></_>
    <_>
      <rects>
        <_>
          5 1 18 1 -1.</_>
        <_>
          11 1 6 1 3.</_></rects>
      <tilted>0</tilted></_>
    <_>
      <rects>
        <_>
          6 4 20 29 -1.</_>
        <_>
          16 4 10 29 2.</_></rects>
      <tilted>0</tilted></_>
    <_>
      <rects>
        <_>
          6 5 16 26 -1.</_>
        <_>
          6 5 8 13 2.</_>
        <_>
          14 18 8 13 2.</_></rects>
      <tilted>0</tilted></_>
    <_>
      <rects>
        <_>
          6 11 14 10 -1.</_>
        <_>
          13 11 7 10 2.</_></rects>
      <tilted>0</tilted></_>
    <_>
      <rects>
        <_>
          6 14 2 2 -1.</_>
        <_>
          6 14 1 1 2.</_>
        <_>
          7 15 1 1 2.</_></rects>
      <tilted>0</tilted></_>
    <_>
      <rects>
        <_>
          6 17 8 6 -1.</_>
        <_>
          6 17 4 3 2.</_>
        <_>
          10 20 4 3 2.</_></rects>
      <tilted>0</tilted></_>
    <_>
      <rects>
        <_>
          6 31 18 2 -1.</_>
        <_>
          15 31 9 2 2.</_></rects>
      <tilted>0</tilted></_>
    <_>
      <rects>
        <_>
          7 0 4 6 -1.</_>
        <_>
          9 0 2 6 2.</_></rects>
      <tilted>0</tilted></_>
    <_>
      <rects>
        <_>
          7 18 3 6 -1.</_>
        <_>
          7 21 3 3 2.</_></rects>
      <tilted>0</tilted></_>
    <_>
      <rects>
        <_>
          7 19 2 2 -1.</_>
        <_>
          7 19 1 1 2.</_>
        <_>
          8 20 1 1 2.</_></rects>
      <tilted>0</tilted></_>
    <_>
      <rects>
        <_>
          7 20 20 4 -1.</_>
        <_>
          17 20 10 4 2.</_></rects>
      <tilted>0</tilted></_>
    <_>
      <rects>
        <_>
          7 24 12 4 -1.</_>
        <_>
          7 24 6 2 2.</_>
        <_>
          13 26 6 2 2.</_></rects>
      <tilted>0</tilted></_>
    <_>
      <rects>
        <_>
          8 1 1 3 -1.</_>
        <_>
          8 2 1 1 3.</_></rects>
      <tilted>0</tilted></_>
    <_>
      <rects>
        <_>
          8 21 16 10 -1.</_>
        <_>
          8 21 8 5 2.</_>
        <_>
          16 26 8 5 2.</_></rects>
      <tilted>0</tilted></_>
    <_>
      <rects>
        <_>
          9 0 5 16 -1.</_>
        <_>
          9 8 5 8 2.</_></rects>
      <tilted>0</tilted></_>
    <_>
      <rects>
        <_>
          9 0 20 22 -1.</_>
        <_>
          19 0 10 22 2.</_></rects>
      <tilted>0</tilted></_>
    <_>
      <rects>
        <_>
          9 0 14 26 -1.</_>
        <_>
          9 13 14 13 2.</_></rects>
      <tilted>0</tilted></_>
    <_>
      <rects>
        <_>
          9 3 14 30 -1.</_>
        <_>
          9 13 14 10 3.</_></rects>
      <tilted>0</tilted></_>
    <_>
      <rects>
        <_>
          9 6 21 27 -1.</_>
        <_>
          9 15 21 9 3.</_></rects>
      <tilted>0</tilted></_>
    <_>
      <rects>
        <_>
          9 13 6 2 -1.</_>
        <_>
          9 14 6 1 2.</_></rects>
      <tilted>0</tilted></_>
    <_>
      <rects>
        <_>
          10 0 2 16 -1.</_>
        <_>
          10 0 1 8 2.</_>
        <_>
          11 8 1 8 2.</_></rects>
      <tilted>0</tilted></_>
    <_>
      <rects>
        <_>
          10 8 10 14 -1.</_>
        <_>
          10 8 5 7 2.</_>
        <_>
          15 15 5 7 2.</_></rects>
      <tilted>0</tilted></_>
    <_>
      <rects>
        <_>
          10 10 14 14 -1.</_>
        <_>
          10 10 7 7 2.</_>
        <_>
          17 17 7 7 2.</_></rects>
      <tilted>0</tilted></_>
    <_>
      <rects>
        <_>
          10 10 14 16 -1.</_>
        <_>
          10 10 7 8 2.</_>
        <_>
          17 18 7 8 2.</_></rects>
      <tilted>0</tilted></_>
    <_>
      <rects>
        <_>
          10 13 4 1 -1.</_>
        <_>
          12 13 2 1 2.</_></rects>
      <tilted>0</tilted></_>
    <_>
      <rects>
        <_>
          10 16 8 10 -1.</_>
        <_>
          10 16 4 5 2.</_>
        <_>
          14 21 4 5 2.</_></rects>
      <tilted>0</tilted></_>
    <_>
      <rects>
        <_>
          11 8 10 21 -1.</_>
        <_>
          11 15 10 7 3.</_></rects>
      <tilted>0</tilted></_>
    <_>
      <rects>
        <_>
          11 9 14 16 -1.</_>
        <_>
          11 9 7 8 2.</_>
        <_>
          18 17 7 8 2.</_></rects>
      <tilted>0</tilted></_>
    <_>
      <rects>
        <_>
          11 10 14 16 -1.</_>
        <_>
          11 10 7 8 2.</_>
        <_>
          18 18 7 8 2.</_></rects>
      <tilted>0</tilted></_>
    <_>
      <rects>
        <_>
          11 12 14 14 -1.</_>
        <_>
          11 12 7 7 2.</_>
        <_>
          18 19 7 7 2.</_></rects>
      <tilted>0</tilted></_>
    <_>
      <rects>
        <_>
          12 0 1 24 -1.</_>
        <_>
          12 8 1 8 3.</_></rects>
      <tilted>0</tilted></_>
    <_>
      <rects>
        <_>
          12 0 12 16 -1.</_>
        <_>
          12 0 6 8 2.</_>
        <_>
          18 8 6 8 2.</_></rects>
      <tilted>0</tilted></_>
    <_>
      <rects>
        <_>
          12 4 3 17 -1.</_>
        <_>
          13 4 1 17 3.</_></rects>
      <tilted>0</tilted></_>
    <_>
      <rects>
        <_>
          12 15 3 5 -1.</_>
        <_>
          13 15 1 5 3.</_></rects>
      <tilted>0</tilted></_>
    <_>
      <rects>
        <_>
          13 2 2 6 -1.</_>
        <_>
          13 2 1 3 2.</_>
        <_>
          14 5 1 3 2.</_></rects>
      <tilted>0</tilted></_>
    <_>
      <rects>
        <_>
          13 5 18 27 -1.</_>
        <_>
          19 5 6 27 3.</_></rects>
      <tilted>0</tilted></_>
    <_>
      <rects>
        <_>
          13 9 20 17 -1.</_>
        <_>
          23 9 10 17 2.</_></rects>
      <tilted>0</tilted></_>
    <_>
      <rects>
        <_>
          14 0 1 33 -1.</_>
        <_>
          14 11 1 11 3.</_></rects>
      <tilted>0</tilted></_>
    <_>
      <rects>
        <_>
          14 1 6 30 -1.</_>
        <_>
          14 11 6 10 3.</_></rects>
      <tilted>0</tilted></_>
    <_>
      <rects>
        <_>
          14 3 3 27 -1.</_>
        <_>
          14 12 3 9 3.</_></rects>
      <tilted>0</tilted></_>
    <_>
      <rects>
        <_>
          14 4 4 14 -1.</_>
        <_>
          14 11 4 7 2.</_></rects>
      <tilted>0</tilted></_>
    <_>
      <rects>
        <_>
          14 11 3 1 -1.</_>
        <_>
          15 11 1 1 3.</_></rects>
      <tilted>0</tilted></_>
    <_>
      <rects>
        <_>
          14 14 1 12 -1.</_>
        <_>
          14 18 1 4 3.</_></rects>
      <tilted>0</tilted></_>
    <_>
      <rects>
        <_>
          14 16 1 2 -1.</_>
        <_>
          14 17 1 1 2.</_></rects>
      <tilted>0</tilted></_>
    <_>
      <rects>
        <_>
          14 19 11 3 -1.</_>
        <_>
          14 20 11 1 3.</_></rects>
      <tilted>0</tilted></_>
    <_>
      <rects>
        <_>
          15 0 1 30 -1.</_>
        <_>
          15 10 1 10 3.</_></rects>
      <tilted>0</tilted></_>
    <_>
      <rects>
        <_>
          15 1 1 30 -1.</_>
        <_>
          15 11 1 10 3.</_></rects>
      <tilted>0</tilted></_>
    <_>
      <rects>
        <_>
          15 2 1 30 -1.</_>
        <_>
          15 12 1 10 3.</_></rects>
      <tilted>0</tilted></_>
    <_>
      <rects>
        <_>
          15 4 2 24 -1.</_>
        <_>
          15 12 2 8 3.</_></rects>
      <tilted>0</tilted></_>
    <_>
      <rects>
        <_>
          15 5 10 16 -1.</_>
        <_>
          20 5 5 16 2.</_></rects>
      <tilted>0</tilted></_>
    <_>
      <rects>
        <_>
          15 6 18 20 -1.</_>
        <_>
          24 6 9 20 2.</_></rects>
      <tilted>0</tilted></_>
    <_>
      <rects>
        <_>
          15 7 2 8 -1.</_>
        <_>
          16 7 1 8 2.</_></rects>
      <tilted>0</tilted></_>
    <_>
      <rects>
        <_>
          15 16 3 1 -1.</_>
        <_>
          16 16 1 1 3.</_></rects>
      <tilted>0</tilted></_>
    <_>
      <rects>
        <_>
          16 7 1 18 -1.</_>
        <_>
          16 13 1 6 3.</_></rects>
      <tilted>0</tilted></_>
    <_>
      <rects>
        <_>
          16 11 10 8 -1.</_>
        <_>
          16 15 10 4 2.</_></rects>
      <tilted>0</tilted></_>
    <_>
      <rects>
        <_>
          16 12 3 2 -1.</_>
        <_>
          17 12 1 2 3.</_></rects>
      <tilted>0</tilted></_>
    <_>
      <rects>
        <_>
          16 16 10 1 -1.</_>
        <_>
          21 16 5 1 2.</_></rects>
      <tilted>0</tilted></_>
    <_>
      <rects>
        <_>
          16 26 4 3 -1.</_>
        <_>
          16 27 4 1 3.</_></rects>
      <tilted>0</tilted></_>
    <_>
      <rects>
        <_>
          17 6 4 6 -1.</_>
        <_>
          17 6 2 3 2.</_>
        <_>
          19 9 2 3 2.</_></rects>
      <tilted>0</tilted></_>
    <_>
      <rects>
        <_>
          17 10 1 9 -1.</_>
        <_>
          17 13 1 3 3.</_></rects>
      <tilted>0</tilted></_>
    <_>
      <rects>
        <_>
          17 12 3 7 -1.</_>
        <_>
          18 12 1 7 3.</_></rects>
      <tilted>0</tilted></_>
    <_>
      <rects>
        <_>
          17 17 3 2 -1.</_>
        <_>
          18 17 1 2 3.</_></rects>
      <tilted>0</tilted></_>
    <_>
      <rects>
        <_>
          17 23 9 6 -1.</_>
        <_>
          17 26 9 3 2.</_></rects>
      <tilted>0</tilted></_>
    <_>
      <rects>
        <_>
          18 4 2 12 -1.</_>
        <_>
          18 4 1 6 2.</_>
        <_>
          19 10 1 6 2.</_></rects>
      <tilted>0</tilted></_>
    <_>
      <rects>
        <_>
          18 7 2 2 -1.</_>
        <_>
          19 7 1 2 2.</_></rects>
      <tilted>0</tilted></_>
    <_>
      <rects>
        <_>
          18 11 3 1 -1.</_>
        <_>
          19 11 1 1 3.</_></rects>
      <tilted>0</tilted></_>
    <_>
      <rects>
        <_>
          18 32 12 1 -1.</_>
        <_>
          22 32 4 1 3.</_></rects>
      <tilted>0</tilted></_>
    <_>
      <rects>
        <_>
          19 1 3 4 -1.</_>
        <_>
          20 1 1 4 3.</_></rects>
      <tilted>0</tilted></_>
    <_>
      <rects>
        <_>
          19 11 3 1 -1.</_>
        <_>
          20 11 1 1 3.</_></rects>
      <tilted>0</tilted></_>
    <_>
      <rects>
        <_>
          19 11 3 9 -1.</_>
        <_>
          20 11 1 9 3.</_></rects>
      <tilted>0</tilted></_>
    <_>
      <rects>
        <_>
          19 14 2 12 -1.</_>
        <_>
          19 14 1 6 2.</_>
        <_>
          20 20 1 6 2.</_></rects>
      <tilted>0</tilted></_>
    <_>
      <rects>
        <_>
          20 30 12 1 -1.</_>
        <_>
          26 30 6 1 2.</_></rects>
      <tilted>0</tilted></_>
    <_>
      <rects>
        <_>
          21 0 6 32 -1.</_>
        <_>
          24 0 3 32 2.</_></rects>
      <tilted>0</tilted></_>
    <_>
      <rects>
        <_>
          21 8 6 1 -1.</_>
        <_>
          23 8 2 1 3.</_></rects>
      <tilted>0</tilted></_>
    <_>
      <rects>
        <_>
          21 17 6 10 -1.</_>
        <_>
          21 17 3 5 2.</_>
        <_>
          24 22 3 5 2.</_></rects>
      <tilted>0</tilted></_>
    <_>
      <rects>
        <_>
          22 9 8 21 -1.</_>
        <_>
          22 16 8 7 3.</_></rects>
      <tilted>0</tilted></_>
    <_>
      <rects>
        <_>
          23 0 3 2 -1.</_>
        <_>
          24 0 1 2 3.</_></rects>
      <tilted>0</tilted></_>
    <_>
      <rects>
        <_>
          23 8 5 18 -1.</_>
        <_>
          23 14 5 6 3.</_></rects>
      <tilted>0</tilted></_>
    <_>
      <rects>
        <_>
          24 2 9 6 -1.</_>
        <_>
          24 5 9 3 2.</_></rects>
      <tilted>0</tilted></_>
    <_>
      <rects>
        <_>
          26 5 6 20 -1.</_>
        <_>
          26 15 6 10 2.</_></rects>
      <tilted>0</tilted></_>
    <_>
      <rects>
        <_>
          27 1 4 3 -1.</_>
        <_>
          27 2 4 1 3.</_></rects>
      <tilted>0</tilted></_>
    <_>
      <rects>
        <_>
          28 4 3 9 -1.</_>
        <_>
          29 4 1 9 3.</_></rects>
      <tilted>0</tilted></_>
    <_>
      <rects>
        <_>
          28 27 4 3 -1.</_>
        <_>
          30 27 2 3 2.</_></rects>
      <tilted>0</tilted></_>
    <_>
      <rects>
        <_>
          29 13 3 1 -1.</_>
        <_>
          30 13 1 1 3.</_></rects>
      <tilted>0</tilted></_>
    <_>
      <rects>
        <_>
          30 0 2 10 -1.</_>
        <_>
          31 0 1 10 2.</_></rects>
      <tilted>0</tilted></_>
    <_>
      <rects>
        <_>
          30 5 2 27 -1.</_>
        <_>
          30 14 2 9 3.</_></rects>
      <tilted>0</tilted></_>
    <_>
      <rects>
        <_>
          30 11 2 19 -1.</_>
        <_>
          31 11 1 19 2.</_></rects>
      <tilted>0</tilted></_>
    <_>
      <rects>
        <_>
          30 14 3 18 -1.</_>
        <_>
          30 23 3 9 2.</_></rects>
      <tilted>0</tilted></_>
    <_>
      <rects>
        <_>
          32 18 1 12 -1.</_>
        <_>
          32 24 1 6 2.</_></rects>
      <tilted>0</tilted></_></features></cascade>
</opencv_storage>
