<?xml version="1.0"?>
<opencv_storage>
<cascade>
  <stageType>BOOST</stageType>
  <featureType>HAAR</featureType>
  <height>32</height>
  <width>32</width>
  <stageParams>
    <boostType>GAB</boostType>
    <minHitRate>9.9500000476837158e-01</minHitRate>
    <maxFalseAlarm>5.0000000000000000e-01</maxFalseAlarm>
    <weightTrimRate>9.4999998807907104e-01</weightTrimRate>
    <maxDepth>1</maxDepth>
    <maxWeakCount>100</maxWeakCount></stageParams>
  <featureParams>
    <maxCatCount>0</maxCatCount>
    <featSize>1</featSize>
    <mode>BASIC</mode></featureParams>
  <stageNum>7</stageNum>
  <stages>
    <!-- stage 0 -->
    <_>
      <maxWeakCount>4</maxWeakCount>
      <stageThreshold>-1.7442544698715210e+00</stageThreshold>
      <weakClassifiers>
        <_>
          <internalNodes>
            0 -1 1 -2.4349556863307953e-01</internalNodes>
          <leafValues>
            5.8333331346511841e-01 -9.7813123464584351e-01</leafValues></_>
        <_>
          <internalNodes>
            0 -1 23 -6.3948363065719604e-02</internalNodes>
          <leafValues>
            7.3695302009582520e-01 -9.0005052089691162e-01</leafValues></_>
        <_>
          <internalNodes>
            0 -1 5 -5.7578273117542267e-03</internalNodes>
          <leafValues>
            9.1153007745742798e-01 -7.2254395484924316e-01</leafValues></_>
        <_>
          <internalNodes>
            0 -1 6 -2.2258129715919495e-01</internalNodes>
          <leafValues>
            8.5647124052047729e-01 -5.6355762481689453e-01</leafValues></_></weakClassifiers></_>
    <!-- stage 1 -->
    <_>
      <maxWeakCount>3</maxWeakCount>
      <stageThreshold>-1.3075221776962280e+00</stageThreshold>
      <weakClassifiers>
        <_>
          <internalNodes>
            0 -1 12 -1.6801242530345917e-01</internalNodes>
          <leafValues>
            1. -9.6463656425476074e-01</leafValues></_>
        <_>
          <internalNodes>
            0 -1 16 4.3067738413810730e-02</internalNodes>
          <leafValues>
            -8.9347779750823975e-01 5.3252846002578735e-01</leafValues></_>
        <_>
          <internalNodes>
            0 -1 2 1.6300363931804895e-03</internalNodes>
          <leafValues>
            -8.5508829355239868e-01 5.5059218406677246e-01</leafValues></_></weakClassifiers></_>
    <!-- stage 2 -->
    <_>
      <maxWeakCount>3</maxWeakCount>
      <stageThreshold>-1.6635882854461670e+00</stageThreshold>
      <weakClassifiers>
        <_>
          <internalNodes>
            0 -1 20 -1.0029429942369461e-01</internalNodes>
          <leafValues>
            8.4615385532379150e-01 -9.6460175514221191e-01</leafValues></_>
        <_>
          <internalNodes>
            0 -1 11 -7.2080735117197037e-03</internalNodes>
          <leafValues>
            4.0715157985687256e-01 -8.6458593606948853e-01</leafValues></_>
        <_>
          <internalNodes>
            0 -1 0 1.1724156793206930e-03</internalNodes>
          <leafValues>
            -8.5383850336074829e-01 1.6559943556785583e-01</leafValues></_></weakClassifiers></_>
    <!-- stage 3 -->
    <_>
      <maxWeakCount>4</maxWeakCount>
      <stageThreshold>-2.0234692096710205e+00</stageThreshold>
      <weakClassifiers>
        <_>
          <internalNodes>
            0 -1 25 -5.1208134740591049e-02</internalNodes>
          <leafValues>
            1. -9.6270853281021118e-01</leafValues></_>
        <_>
          <internalNodes>
            0 -1 14 -7.2273001074790955e-02</internalNodes>
          <leafValues>
            4.8554146289825439e-01 -8.5718405246734619e-01</leafValues></_>
        <_>
          <internalNodes>
            0 -1 19 5.9177482035011053e-04</internalNodes>
          <leafValues>
            -6.9501459598541260e-01 5.4637140035629272e-01</leafValues></_>
        <_>
          <internalNodes>
            0 -1 8 -7.4917022138834000e-03</internalNodes>
          <leafValues>
            4.9143806099891663e-01 -7.2008144855499268e-01</leafValues></_></weakClassifiers></_>
    <!-- stage 4 -->
    <_>
      <maxWeakCount>4</maxWeakCount>
      <stageThreshold>-1.9731538295745850e+00</stageThreshold>
      <weakClassifiers>
        <_>
          <internalNodes>
            0 -1 21 -1.1937177181243896e-01</internalNodes>
          <leafValues>
            3.3333334326744080e-01 -9.6442687511444092e-01</leafValues></_>
        <_>
          <internalNodes>
            0 -1 13 7.8325711190700531e-02</internalNodes>
          <leafValues>
            -8.8435310125350952e-01 6.6764242947101593e-03</leafValues></_>
        <_>
          <internalNodes>
            0 -1 22 1.2016177177429199e-02</internalNodes>
          <leafValues>
            -6.6713958978652954e-01 4.4587600231170654e-01</leafValues></_>
        <_>
          <internalNodes>
            0 -1 26 1.0983634740114212e-02</internalNodes>
          <leafValues>
            -5.7024991512298584e-01 6.0351461172103882e-01</leafValues></_></weakClassifiers></_>
    <!-- stage 5 -->
    <_>
      <maxWeakCount>5</maxWeakCount>
      <stageThreshold>-2.0628812313079834e+00</stageThreshold>
      <weakClassifiers>
        <_>
          <internalNodes>
            0 -1 9 1.1444105207920074e-01</internalNodes>
          <leafValues>
            -9.5121949911117554e-01 1.</leafValues></_>
        <_>
          <internalNodes>
            0 -1 10 -1.9077484309673309e-01</internalNodes>
          <leafValues>
            3.8158491253852844e-01 -8.4554523229598999e-01</leafValues></_>
        <_>
          <internalNodes>
            0 -1 27 9.1306847753003240e-04</internalNodes>
          <leafValues>
            -7.9682737588882446e-01 1.9263865053653717e-01</leafValues></_>
        <_>
          <internalNodes>
            0 -1 7 1.0319932550191879e-01</internalNodes>
          <leafValues>
            -7.2253632545471191e-01 4.0122950077056885e-01</leafValues></_>
        <_>
          <internalNodes>
            0 -1 4 -1.0325967195967678e-05</internalNodes>
          <leafValues>
            -9.6026629209518433e-01 2.6378130912780762e-01</leafValues></_></weakClassifiers></_>
    <!-- stage 6 -->
    <_>
      <maxWeakCount>5</maxWeakCount>
      <stageThreshold>-1.5234030485153198e+00</stageThreshold>
      <weakClassifiers>
        <_>
          <internalNodes>
            0 -1 24 -1.0614914819598198e-02</internalNodes>
          <leafValues>
            1. -9.5121949911117554e-01</leafValues></_>
        <_>
          <internalNodes>
            0 -1 3 -4.8004899173974991e-02</internalNodes>
          <leafValues>
            5.8071273565292358e-01 -8.0346029996871948e-01</leafValues></_>
        <_>
          <internalNodes>
            0 -1 18 -4.5089960098266602e-02</internalNodes>
          <leafValues>
            3.5704630613327026e-01 -6.3779503107070923e-01</leafValues></_>
        <_>
          <internalNodes>
            0 -1 17 -2.8455897700041533e-04</internalNodes>
          <leafValues>
            -1. 2.4940012395381927e-01</leafValues></_>
        <_>
          <internalNodes>
            0 -1 15 2.5802664458751678e-02</internalNodes>
          <leafValues>
            -3.7516972422599792e-01 8.5747998952865601e-01</leafValues></_></weakClassifiers></_></stages>
  <features>
    <_>
      <rects>
        <_>
          1 12 28 2 -1.</_>
        <_>
          1 12 14 1 2.</_>
        <_>
          15 13 14 1 2.</_></rects>
      <tilted>0</tilted></_>
    <_>
      <rects>
        <_>
          3 7 27 15 -1.</_>
        <_>
          12 7 9 15 3.</_></rects>
      <tilted>0</tilted></_>
    <_>
      <rects>
        <_>
          6 12 9 3 -1.</_>
        <_>
          6 13 9 1 3.</_></rects>
      <tilted>0</tilted></_>
    <_>
      <rects>
        <_>
          7 11 9 16 -1.</_>
        <_>
          10 11 3 16 3.</_></rects>
      <tilted>0</tilted></_>
    <_>
      <rects>
        <_>
          7 31 6 1 -1.</_>
        <_>
          10 31 3 1 2.</_></rects>
      <tilted>0</tilted></_>
    <_>
      <rects>
        <_>
          8 22 5 3 -1.</_>
        <_>
          8 23 5 1 3.</_></rects>
      <tilted>0</tilted></_>
    <_>
      <rects>
        <_>
          9 5 16 27 -1.</_>
        <_>
          9 14 16 9 3.</_></rects>
      <tilted>0</tilted></_>
    <_>
      <rects>
        <_>
          10 0 22 18 -1.</_>
        <_>
          21 0 11 18 2.</_></rects>
      <tilted>0</tilted></_>
    <_>
      <rects>
        <_>
          11 2 8 26 -1.</_>
        <_>
          11 2 4 13 2.</_>
        <_>
          15 15 4 13 2.</_></rects>
      <tilted>0</tilted></_>
    <_>
      <rects>
        <_>
          11 5 6 18 -1.</_>
        <_>
          11 11 6 6 3.</_></rects>
      <tilted>0</tilted></_>
    <_>
      <rects>
        <_>
          12 0 13 20 -1.</_>
        <_>
          12 10 13 10 2.</_></rects>
      <tilted>0</tilted></_>
    <_>
      <rects>
        <_>
          12 4 2 11 -1.</_>
        <_>
          13 4 1 11 2.</_></rects>
      <tilted>0</tilted></_>
    <_>
      <rects>
        <_>
          12 5 5 24 -1.</_>
        <_>
          12 13 5 8 3.</_></rects>
      <tilted>0</tilted></_>
    <_>
      <rects>
        <_>
          12 9 14 21 -1.</_>
        <_>
          19 9 7 21 2.</_></rects>
      <tilted>0</tilted></_>
    <_>
      <rects>
        <_>
          12 9 18 9 -1.</_>
        <_>
          12 12 18 3 3.</_></rects>
      <tilted>0</tilted></_>
    <_>
      <rects>
        <_>
          12 11 11 4 -1.</_>
        <_>
          12 13 11 2 2.</_></rects>
      <tilted>0</tilted></_>
    <_>
      <rects>
        <_>
          12 12 17 9 -1.</_>
        <_>
          12 15 17 3 3.</_></rects>
      <tilted>0</tilted></_>
    <_>
      <rects>
        <_>
          12 31 14 1 -1.</_>
        <_>
          19 31 7 1 2.</_></rects>
      <tilted>0</tilted></_>
    <_>
      <rects>
        <_>
          13 7 16 15 -1.</_>
        <_>
          13 12 16 5 3.</_></rects>
      <tilted>0</tilted></_>
    <_>
      <rects>
        <_>
          13 18 2 2 -1.</_>
        <_>
          13 18 1 1 2.</_>
        <_>
          14 19 1 1 2.</_></rects>
      <tilted>0</tilted></_>
    <_>
      <rects>
        <_>
          14 5 3 21 -1.</_>
        <_>
          14 12 3 7 3.</_></rects>
      <tilted>0</tilted></_>
    <_>
      <rects>
        <_>
          14 5 3 24 -1.</_>
        <_>
          14 13 3 8 3.</_></rects>
      <tilted>0</tilted></_>
    <_>
      <rects>
        <_>
          15 12 6 17 -1.</_>
        <_>
          17 12 2 17 3.</_></rects>
      <tilted>0</tilted></_>
    <_>
      <rects>
        <_>
          15 13 9 12 -1.</_>
        <_>
          15 17 9 4 3.</_></rects>
      <tilted>0</tilted></_>
    <_>
      <rects>
        <_>
          15 16 3 2 -1.</_>
        <_>
          16 16 1 2 3.</_></rects>
      <tilted>0</tilted></_>
    <_>
      <rects>
        <_>
          16 2 1 30 -1.</_>
        <_>
          16 12 1 10 3.</_></rects>
      <tilted>0</tilted></_>
    <_>
      <rects>
        <_>
          18 1 4 16 -1.</_>
        <_>
          20 1 2 16 2.</_></rects>
      <tilted>0</tilted></_>
    <_>
      <rects>
        <_>
          18 15 3 13 -1.</_>
        <_>
          19 15 1 13 3.</_></rects>
      <tilted>0</tilted></_></features></cascade>
</opencv_storage>
